1,20,4000,0.001000,0.001000,100,50,0,5
-0.006136,-0.002313,0.006285,-0.000057,-0.015835,0.075399,-0.017832,-0.011771,0.015839,0.058844,0.072933,-0.012072,0.032132,-0.011310,-0.015740,0.064814,0.006243,0.010319,0.041570,0.037442,-0.006575,0.160842,0.134638,-0.035180,0.124141,0.057492,-0.003847,0.053709,0.013949,-0.005627,0.075818,0.010989,0.017274,-0.005399,0.041513,0.035845,-0.005969,0.072001,0.001275,0.096971,0.004821,0.005669,0.111236,-0.012592,0.044952,0.010967,0.044030,0.011493,0.005190,0.113207,0.010358,0.000549,0.014879,0.017922,0.021951,-0.019785,0.015503,0.119677,0.102836,0.038096,-0.020816,-0.004086,0.036882,0.024117,-0.008797,0.037487,0.007495,-0.014819,0.040159,0.066713,-0.019893,0.004096,0.011309,-0.015625,0.023541,-0.014742,0.029237,0.115761,-0.013505,0.313772,-0.023097,0.023008,0.068851,-0.006513,-0.004499,0.043764,0.056737,-0.007914,-0.001883,0.006134,0.031225,0.070738,0.047546,0.025058,-0.000647,0.025033,0.042098,0.018766,0.009128,0.021176,0.001874,0.003928,0.009676,-0.026173,0.013860,0.010284,0.089486,0.023703,-0.003327,0.014455,-0.010399,0.003698,0.014993,-0.003887,0.029444,0.015674,-0.002196,0.069100,0.000437,0.022577,0.015967,0.014219,0.052940,-0.047894,-0.003528,-0.005746,0.017238,0.051147,0.006888,0.023273,0.015029,0.019699,-0.010815,0.044027,-0.019448,0.034953,0.060045,0.052978,-0.005455,0.001725,0.001530,-0.012785,-0.001343,-0.031496,-0.005832,0.014959,0.032996,0.100040,-0.006509,0.015252,0.062385,0.104039,0.001272,0.009580,0.034475,0.028928,0.058323,0.150174,-0.002311,0.116094,-0.013115,-0.001976,0.067176,0.014097,0.009728,0.033859,0.118271,-0.013261,0.116348,0.020206,0.043267,0.017432,0.002291,0.002637,-0.006327,0.065583,-0.008222,0.055394,-0.001209,0.086833,0.010127,0.155757,0.054928,-0.034321,-0.003287,0.079079,0.040476,0.040743,0.005795,-0.008953,-0.006519,0.011266,0.051925,0.024937,0.038621,0.111659,-0.007763,0.030873,0.013579,0.011196,0.038851,-0.013334,0.014967,-0.024776,-0.006602,-0.007431,-0.001753,0.000834,0.026906,0.069479,-0.011826,-0.004302,-0.007442,-0.003809,-0.015704,-0.001758,0.032440,0.032011,0.020353,0.002472,0.028976,0.074851,0.026962,-0.037051,-0.006881,0.024818,-0.012833,-0.008733,0.058022,0.000509,0.101408,0.212711,-0.006479,0.001739,0.004115,0.092766,0.105498,0.009914,0.035303,-0.015428,0.059888,0.092763,0.014082,-0.026921,0.027026,0.014352,0.010340,0.022225,-0.010405,0.007649,0.117260,0.012395,-0.001306,-0.008770,-0.010142,-0.022669,-0.015448,0.019141,-0.013200,0.018461,0.034120,-0.006860,0.056396,0.005226,-0.001740,0.081131,0.004234,0.010034,0.000244,0.038466,0.016965,-0.009525,0.010413,0.095154,0.027504,-0.008634,0.043933,0.024150,0.001256,0.049800,0.037214,-0.004039,0.037263,-0.018826,-0.000342,0.004377,-0.008068,0.010298,0.108104,0.040752,0.034185,-0.009744,-0.001230,0.069854,-0.011535,0.038254,-0.008154,0.022387,0.050696,0.001215,0.012932,0.098798,-0.001260,-0.008514,-0.001908,0.070093,0.065024,0.016186,-0.001494,0.025984,-0.000632,0.012754,0.014405,-0.004755,-0.005097,0.074805,0.014027,0.010158,0.032067,0.004172,0.091309,-0.016644,0.000152,-0.014834,-0.006992,0.018323,0.021128,-0.013099,0.189961,-0.008393,0.033788,0.018190,0.020769,-0.002844,0.089542,0.023994,-0.013817,0.023068,-0.018174,0.015116,0.007455,-0.015809,0.062919,0.001373,-0.001004,0.064264,-0.018868,0.052184,-0.002978,0.012668,-0.017178,0.004141,0.031966,0.080272,0.050225,0.113074,0.021709,0.067940,0.117590,-0.014893,0.028921,-0.008751,-0.001775,0.001401,-0.009420,-0.015439,0.008068,0.009104,0.059260,0.029253,0.112685,-0.005998,-0.003875,0.068096,-0.003734,0.029777,0.084879,0.044598,-0.002291,0.103052,0.050675,0.109473,0.010016,0.008732,0.006479,-0.001941,0.056158,0.038778,0.003671,0.065794,0.080181,0.165309,0.051805,-0.007984,0.039352,0.011687,0.058856,0.016581,0.005752,0.042008,0.015429,-0.010299,0.056139,0.009146,0.016561,0.026631,0.025300,0.027534,0.006951,0.017945,0.127197,0.026216,0.037705,0.000534,0.029213,0.052296,0.000576,-0.015114,0.058806,0.022233,0.041790,0.029947,0.034774,0.029436,0.026962,0.008602,0.034705,0.024075,0.006143,0.013133,0.017308,-0.006086,-0.005061,0.020285,-0.003754,0.002419,0.064656,-0.001308,0.014374,-0.004173,-0.009071,-0.018175,0.008473,0.006600,0.008223,-0.008118,0.036684,0.030880,0.019414,-0.009324,0.106934,0.053293,0.023148,0.071417,-0.001106,0.089732,0.197123,0.006432,0.021035,0.009432,0.015266,-0.004897,0.046941,0.039505,0.024872,-0.006596,-0.019143,0.028168,0.002329,0.024272,0.031501,0.078139,-0.005983,0.005815,0.010192,0.037485,0.020794,-0.005239,0.097631,0.034303,0.014948,-0.014620,0.013161,0.066201,0.034449,-0.002198,0.007231,-0.005272,-0.001169,0.006472,0.003485,-0.006886,0.011002,0.016203,0.033742,0.008820,0.012673,-0.004299,0.018191,0.001580,0.057615,0.037006,-0.009513,0.027016,0.010023,0.015865,0.006440,0.086221,0.011938,0.024842,-0.000943,0.005679,-0.001605,0.005694,0.003271,0.019939,0.026790,0.058386,0.017450,0.092617,0.045058,0.154382,0.070314,0.023226,0.108534,-0.014360,0.060297,0.018853,0.037191,0.026169,0.274082,-0.023305,0.009638,0.009616,0.000825,0.021958,0.032376,-0.015082,0.003049,0.001911,0.018906,0.092556,0.008670,0.077838,0.107083,0.005343,-0.020932,-0.004901,-0.001753,0.007479,-0.011715,0.010944,-0.001435,0.000658,-0.014748,0.007477,0.023497,-0.006102,0.099600,0.024340,0.095324,0.047143,-0.029345,0.049513,-0.010071,0.025405,0.019378,0.058202,0.007476,0.030480,0.004568,-0.001649,0.065184,0.073872,0.039537,0.010793,0.030261,0.111701,0.005494,0.011199,0.052002,0.047020,0.028828,0.044571,0.010274,0.062800,0.011769,0.032467,0.000892,0.006707,-0.016606,0.007248,0.058029,0.106266,0.029885,0.121924,0.089976,0.041000,0.024000,0.004545,0.030642,-0.014627,0.039673,0.060737,0.055545,0.007462,-0.017318,0.016844,-0.007127,0.040765,-0.006646,-0.013451,0.075878,0.030199,0.061895,0.088948,-0.018810,0.013107,0.115586,0.003825,0.036307,0.012492,-0.015684,0.071242,0.125407,-0.021953,-0.023731,0.011322,0.009359,0.007814,0.121358,0.116736,0.011984,-0.012941,-0.009230,0.000430,0.003089,-0.029760,0.024289,0.082866,0.057705,0.010686,-0.011516,0.056537,0.035464,0.015379,0.001117,0.027059,0.019077,0.007952,0.052704,-0.007006,-0.002872,0.002725,0.051389,0.012930,0.058376,-0.004433,0.006891,0.067067,0.089516,0.038630,0.030822,0.066292,-0.003313,0.008753,0.045971,0.027691,0.034067,0.103611,0.054739,0.047211,0.016994,0.014089,0.046931,0.032996,-0.009374,0.031087,-0.000580,0.004071,0.054194,0.001027,0.017783,0.080210,0.022189,-0.022333,0.008689,0.006415,0.014448,0.038983,-0.007334,-0.009506,-0.012226,0.029648,-0.014916,0.073784,0.052523,-0.009509,-0.011271,0.195463,0.016792,0.105462,-0.025578,0.067264,-0.010887,-0.017478,0.137660,0.159967,-0.011904,0.018835,0.051029,-0.021214,-0.005088,0.051281,-0.008460,0.001421,0.004515,0.043623,0.004932,0.069281,0.042816,-0.009658,0.028965,0.110867,-0.011605,-0.002147,-0.023782,0.005125,0.064128,0.040635,0.085087,0.033998,0.034442,-0.016685,-0.001066,0.006573,-0.008823,-0.014102,0.006838,0.007022,0.098904,-0.027431,0.018182,0.023611,-0.009244,0.023777,-0.015993,0.164351,0.030870,0.056669,0.005478,-0.019002,0.013769,0.047843,-0.011120,0.034884,0.083367,0.043812,-0.006880,-0.013993,0.026703,-0.025583,-0.009896,0.038594,0.031207,0.023549,0.003416,0.243226,0.081766,0.004878,0.071888,-0.026570,0.000885,-0.023889,0.022283,0.001432,-0.009534,0.086694,0.117890,0.020829,0.042194,-0.011093,0.060859,0.138601,-0.014823,0.025043,-0.015773,0.004665,-0.010021,0.035527,0.005744,0.013191,0.027177,-0.009594,0.058447,0.007987,0.044374,-0.018823,-0.014639,-0.023659,0.077325,-0.019892,0.029059,0.106582,0.172444,0.000564,-0.006151,0.007555,0.071731,-0.013327,0.011907,0.086916,0.002275,0.018105,-0.028819,0.114624,0.095939,0.026972,-0.017241,-0.011870,0.032576,-0.004434,-0.012606,0.048215,0.045983,0.004398,0.013950,0.145383,0.015446,0.050064,0.049520,-0.022479,0.031270,-0.007574,-0.026023,0.064131,0.044090,0.003012,0.018792,-0.022804,0.031694,-0.025498,0.005065,0.101199,-0.012192,-0.030292,0.102831,0.054819,0.072138,0.007312,0.012026,-0.027276,-0.005698,-0.019913,-0.008952,0.057938,0.017903,-0.001576,0.100046,-0.003208,0.018908,-0.013957,-0.022322,0.095279,-0.002427,0.028190,-0.019788,0.063137,0.060408,0.013192,0.032150,-0.012066,0.101037,-0.004627,-0.008908,0.059050,0.057897,-0.027004,0.032552,0.002162,0.074442,-0.009994,-0.029803,0.075648,0.115721,-0.011157,0.007378,0.088355,-0.008575,0.006058,0.005701,0.043104,-0.016006,0.003078,-0.016032,0.033274,-0.014470,-0.019554,0.048262,-0.016614,0.033464,0.190085,-0.033771,0.138143,0.010553,-0.026138,0.011386,0.013291,-0.003120,0.006091,0.000397,-0.006678,0.007331,-0.005321,0.018206,0.056608,0.030113,0.013960,-0.007546,0.010943,0.053842,-0.025383,-0.018375,0.091697,0.030114,-0.029170,-0.032574,0.091612,-0.010935,0.023694,0.004605,0.034156,0.051786,0.026089,0.024706,0.036521,0.058970,-0.029968,-0.011601,0.021530,0.029035,0.005906,-0.024902,0.099666,-0.010323,-0.011458,0.054818,0.049484,0.078246,0.189774,0.001962,0.003944,-0.010112,-0.006207,0.104141,0.058865,-0.007855,-0.009811,-0.016029,-0.018675,0.048717,-0.023460,0.103332,0.119248,0.038475,0.097914,0.009941,0.024611,0.105587,-0.003930,0.070065,-0.017014,-0.009151,-0.027193,-0.008715,0.159403,0.032293,-0.017448,0.092665,0.078619,0.068634,0.010233,0.015789,0.106293,0.002263,-0.019267,-0.000692,0.027042,-0.006223,0.011540,0.023826,-0.020714,0.040876,0.024064,-0.008599,0.100927,0.036514,-0.040095,0.017132,0.056793,0.064852,-0.019867,-0.002370,0.122743,-0.013735,-0.013818,-0.035905,0.030516,0.102436,0.049760,0.080792,-0.001521,0.120036,0.022505,-0.023026,0.021544,-0.002674,-0.029924,0.043954,-0.008660,
-0.014417,0.105091,-0.008740,-0.067868,0.227695,-0.006202,-0.007418,-0.013284,0.087703,-0.005448,0.019374,0.026278,-0.022278,-0.017145,0.003275,0.007627,0.066294,0.008226,-0.070882,0.016719,-0.014608,
