3,20,4000,0.001000,0.001000,100,100,0,5
0.005888,-0.005376,-0.005856,-0.009288,0.008755,0.011618,-0.008371,-0.013158,-0.008951,-0.007222,-0.011940,0.027486,-0.013100,0.017409,-0.011067,-0.010591,-0.011364,0.013559,0.066526,0.035802,0.036451,0.049847,0.010372,-0.003297,-0.013873,-0.000593,-0.012397,0.015326,-0.018642,0.057521,-0.017616,0.007062,0.001253,0.001091,0.027333,-0.015700,-0.042708,-0.198607,-0.006202,-0.003556,0.005581,0.051681,0.004476,0.029878,-0.001918,-0.003377,-0.000085,0.025601,0.012969,-0.000998,-0.016958,0.002322,0.033156,-0.004274,0.014658,-0.012840,-0.044100,-0.196651,-0.003293,-0.016128,-0.002796,-0.002521,-0.007664,0.032436,0.010609,0.020119,0.016996,-0.002893,-0.007392,-0.002266,-0.011635,0.014034,0.007317,0.015305,-0.001168,-0.006606,-0.012144,-0.171620,0.020158,-0.007516,-0.009927,-0.008963,-0.019194,0.006014,-0.006639,0.002176,-0.000572,-0.016890,-0.017996,0.030346,0.083515,0.089791,-0.010595,-0.013055,0.026068,-0.023703,-0.046517,-0.179166,-0.003378,0.047812,-0.002734,0.043630,0.001009,0.014730,-0.005266,-0.001881,-0.003141,-0.007659,-0.007240,-0.006138,-0.012218,0.038749,0.010991,0.008229,0.004056,0.002306,-0.025206,-0.178967,0.012748,0.030892,0.054509,-0.008195,0.000355,0.007007,0.046328,0.028603,0.000802,0.011407,-0.011452,-0.010093,-0.013421,0.042461,0.004780,0.008082,0.010407,-0.012321,-0.031612,-0.182294,-0.010822,-0.007808,-0.006500,0.001790,0.008747,0.017235,0.008858,0.002341,-0.002156,0.020525,-0.004560,0.026008,0.019791,0.007851,-0.003929,0.040343,0.009217,0.009553,-0.038482,-0.175818,0.004934,-0.003205,0.012981,-0.005014,0.009839,0.033495,-0.000945,0.010114,0.025237,0.001376,-0.000188,0.007160,0.000666,-0.005814,0.001957,0.029541,0.007561,-0.018992,0.000210,-0.168987,0.016232,0.003578,0.025515,0.033897,-0.011964,0.015088,-0.008201,0.004874,-0.000015,-0.018688,0.006477,0.030790,-0.020486,-0.003276,0.023805,0.039004,0.038797,-0.031309,-0.043925,-0.155197,0.004083,-0.013840,0.037344,0.000436,-0.008974,0.007083,-0.008856,0.053012,0.003434,0.015044,0.005864,0.000950,-0.003589,0.008339,0.015768,-0.006914,0.044841,-0.025548,-0.014774,-0.155429,0.006089,-0.014478,0.029899,0.038424,0.007902,0.041499,-0.004974,0.018365,0.007486,-0.021726,-0.021378,-0.013440,-0.014081,-0.005328,0.045379,0.042217,-0.006012,-0.023416,-0.043949,-0.154194,0.025790,-0.021315,-0.002696,-0.004209,0.055666,0.002975,-0.001956,0.007733,0.044949,-0.011932,-0.007567,0.007393,-0.019919,0.001091,-0.004549,0.007757,-0.005364,0.001700,-0.000697,-0.129186,0.022144,-0.001863,0.000582,0.041618,-0.004146,-0.005581,0.034667,-0.003084,0.031282,0.057406,0.005453,-0.005636,-0.010452,0.004475,-0.003293,-0.007806,-0.002856,-0.018564,-0.029512,-0.144259,-0.006876,-0.001385,0.002202,0.049131,-0.001634,0.016983,0.016929,0.004145,0.017172,-0.005883,0.009113,-0.003765,-0.010830,0.011833,-0.006872,-0.006349,0.003887,-0.011876,-0.017713,-0.131915,-0.002080,0.020215,-0.006546,0.038595,-0.014645,-0.001158,-0.008712,0.010945,0.006612,0.008825,0.029354,0.020852,-0.006899,0.046885,-0.017777,0.066365,0.013665,-0.024127,-0.028271,-0.141783,-0.012996,-0.017520,0.015539,-0.009935,-0.010452,-0.002398,0.014243,0.000374,-0.002352,0.046388,-0.008784,0.057614,0.038580,0.013805,0.006356,0.005078,-0.000533,0.018256,-0.008126,-0.140839,-0.008128,-0.009193,-0.000659,0.017469,-0.001682,-0.005090,0.030730,0.051857,-0.000715,-0.013255,-0.009993,-0.007291,-0.013147,0.065380,-0.007290,0.042151,-0.004254,-0.013970,-0.013941,-0.135699,0.033375,-0.011312,0.015853,0.025838,-0.018658,0.003248,-0.011369,0.006427,0.000834,0.023011,-0.015354,0.004239,0.097818,0.038052,0.011212,-0.009039,-0.000156,0.010578,-0.023336,-0.133338,0.022187,-0.017858,0.004834,-0.012168,-0.005616,0.002338,0.054565,0.013509,0.003131,-0.004249,0.006418,-0.002839,-0.017273,0.032143,-0.003226,0.036793,0.047906,-0.007144,-0.026030,-0.126559,0.056774,-0.009787,-0.001373,0.033696,0.025093,0.002184,0.022481,-0.001631,0.038425,-0.005838,-0.005215,0.014718,-0.005141,-0.000829,-0.001287,0.006447,0.005559,-0.012267,0.019790,-0.113459,0.011282,-0.001989,-0.010365,-0.003508,0.006951,0.059623,0.083567,0.014986,-0.009790,0.013194,-0.005544,0.022566,-0.012434,0.002610,-0.009421,-0.005579,0.034374,0.007303,-0.021681,-0.120113,0.040556,-0.009274,0.031506,-0.004161,0.014741,-0.001571,0.021546,0.003366,0.029093,0.016284,-0.004662,0.005644,0.007464,-0.003814,0.003853,-0.001041,0.019947,0.025007,-0.010649,-0.109683,0.003570,0.010949,-0.001198,0.001283,0.002769,-0.007074,0.015696,-0.002597,0.011180,0.029628,0.012849,0.001675,0.013527,0.030235,-0.003850,0.009847,0.058643,-0.004927,-0.015564,-0.110750,0.036426,-0.005341,-0.010730,0.005097,-0.007021,0.039946,-0.001419,0.011273,0.020498,0.026139,-0.003428,0.058245,-0.011821,-0.008780,-0.009906,0.027916,0.009214,-0.009988,-0.016283,-0.102182,-0.002153,0.054277,-0.000614,-0.009827,0.001309,0.014278,0.018618,0.049623,0.074441,-0.014904,0.006980,-0.013511,0.026970,0.000743,0.048781,-0.005667,0.003308,-0.003314,-0.014595,-0.097724,-0.000746,-0.012083,0.012169,0.024475,0.036130,0.004939,-0.007020,0.014432,0.003531,-0.007079,0.032725,0.031655,0.026112,-0.005049,0.000880,-0.003187,0.020740,-0.005179,0.020506,-0.096159,-0.006726,0.014310,-0.003617,0.001935,0.025384,0.017708,-0.011579,-0.003985,0.036922,-0.001925,0.023540,0.007337,0.007769,0.014891,-0.006633,0.017500,-0.001973,0.000415,-0.024778,-0.099625,-0.011830,0.119109,0.025145,0.007029,0.013357,0.017493,0.007434,0.019726,0.013053,0.011661,-0.002202,0.003640,0.004343,-0.006754,0.030333,0.006331,0.001153,0.037397,-0.006024,-0.083887,-0.005007,-0.001399,0.052363,-0.000410,0.006462,-0.005917,-0.001638,0.022422,0.018403,0.016944,0.018965,0.087586,-0.007763,-0.005317,0.006570,-0.001385,-0.009347,-0.022003,-0.010340,-0.093985,-0.015791,0.057302,0.013865,-0.000955,0.007819,-0.003739,-0.001518,-0.000299,0.021561,0.024753,0.006184,-0.000639,-0.006174,0.008754,0.031615,0.030203,0.003257,0.024488,0.012998,-0.074695,-0.002846,-0.000950,0.009655,0.012188,0.015140,0.005492,-0.000060,0.025969,0.002449,0.003020,0.001168,0.008577,-0.002553,0.080585,0.010595,0.004229,0.008460,0.003147,-0.003104,-0.079446,0.001969,0.009472,-0.010661,0.005188,0.020998,0.039401,0.021631,-0.007293,0.013764,0.011820,0.021790,0.043395,0.018357,-0.004858,-0.011958,0.006722,0.043247,0.004192,-0.007878,-0.077367,-0.002553,0.022983,0.016102,0.002512,0.003069,0.024536,0.001564,0.028921,0.004788,0.024088,0.015749,0.001850,-0.005236,0.023177,0.003742,0.003621,0.003031,0.001238,0.011076,-0.056537,0.011135,0.004027,0.020707,0.004248,0.009299,-0.006703,0.009355,0.002312,0.005136,0.004606,0.020878,0.001531,-0.003024,0.002638,0.003479,0.041974,0.002411,0.014029,-0.002232,-0.048642,-0.004020,0.026171,0.021436,0.015761,0.001588,-0.000185,-0.005256,0.000194,0.024072,-0.003430,-0.000375,0.011353,0.001610,-0.003651,0.008539,0.013481,0.029868,0.121999,0.005247,-0.064780,-0.010098,-0.001711,-0.003927,0.012882,-0.004261,0.003824,0.003114,-0.001923,0.034066,0.017736,0.051152,-0.005124,0.013763,-0.007576,0.024192,0.034098,0.010943,0.009770,0.000097,-0.053528,0.000953,-0.000584,-0.000180,-0.007709,0.019448,0.006094,0.001461,0.037514,0.003430,0.071455,0.006408,-0.003566,-0.013941,-0.002581,-0.012223,0.003769,0.018521,-0.006697,0.020596,-0.032454,0.038218,-0.001646,0.025285,-0.002691,0.040549,0.013037,-0.008024,-0.000029,0.021245,0.006840,-0.002966,0.014038,0.037614,0.004154,0.032113,-0.005510,-0.003123,-0.006548,0.031441,-0.040622,0.018587,-0.000674,-0.004825,0.039229,-0.009536,0.011252,0.031693,0.009889,-0.009369,0.029270,-0.004137,0.023474,-0.015011,-0.008939,-0.001849,0.010807,-0.008018,-0.002276,0.021613,-0.023664,-0.010278,0.050934,0.039508,-0.011237,0.001692,0.021516,-0.000728,0.011344,0.001496,-0.006800,0.106369,-0.012289,0.015041,0.013340,0.058063,0.007360,-0.006127,-0.010043,0.007967,-0.040227,-0.005750,0.008795,0.036319,0.000815,0.007790,0.048247,0.005387,0.046306,-0.008725,-0.002749,0.006351,-0.004654,-0.006106,-0.008259,-0.001984,0.017731,0.017276,-0.008356,0.014863,-0.016411,0.028218,0.003867,0.003509,0.015375,0.005901,0.000340,0.015260,0.012557,0.001283,0.012646,0.007571,-0.000186,0.025130,0.000711,0.063507,0.006992,-0.000109,0.004610,0.007817,-0.030382,-0.005398,0.024643,0.003452,0.019183,-0.008123,0.038617,-0.000769,0.024791,0.008809,0.006089,0.009530,-0.002876,0.093223,0.010208,0.029102,-0.016266,-0.000241,-0.002735,-0.001220,-0.022644,0.012372,-0.003206,0.013811,-0.000187,0.015357,-0.010432,0.065120,-0.002379,0.023944,0.011923,-0.001067,0.000802,0.004252,0.021160,0.006790,0.007381,0.027452,0.006302,0.005021,-0.020476,-0.003642,0.006334,0.040744,0.053270,0.020640,0.007411,0.023605,-0.008307,-0.005334,-0.012745,-0.003252,0.077454,-0.001772,-0.005634,-0.008239,0.016483,-0.002420,-0.000595,-0.003341,-0.025331,-0.001895,0.026591,0.012320,0.009720,0.036892,0.016384,-0.003286,0.008734,0.003434,0.022319,0.018412,0.016209,0.004824,0.016810,-0.000400,0.009481,-0.001697,0.037662,0.020190,-0.016381,-0.007084,0.017115,0.012986,0.003920,0.021435,0.057557,-0.008499,-0.005535,0.000786,-0.000377,0.001276,-0.008010,0.018701,0.054273,-0.007470,-0.006598,0.005642,0.028395,0.021964,-0.008079,0.037229,0.022847,-0.000119,0.023021,0.004122,0.003357,0.001338,0.001111,0.001813,0.037802,0.005903,0.001843,-0.000824,0.010047,0.003622,0.007223,0.025523,0.033546,0.020387,-0.006634,0.032979,0.012500,-0.006305,0.029035,0.007902,-0.010313,0.035633,0.022230,0.028613,0.002230,0.031546,-0.002534,0.012930,0.042324,-0.006324,0.002765,-0.002170,0.029547,0.005947,-0.002813,-0.005237,-0.005015,-0.004074,-0.011965,0.006739,0.057831,-0.007550,0.005245,0.012657,-0.004508,0.043092,-0.007587,0.076900,0.040796,0.011962,-0.006998,0.001753,-0.000301,0.050942,0.003285,-0.003251,0.008732,-0.002722,-0.013281,0.011523,0.004255,-0.009517,-0.004513,0.004884,0.083363,-0.008241,0.043219,0.031657,0.017140,0.015611,0.002486,0.023468,-0.002512,0.013450,0.012286,-0.001552,-0.000892,0.039102,-0.000963,0.006524,0.117057,0.005182,-0.001314,-0.009005,-0.000589,0.029170,0.003204,0.093269,-0.013646,0.020175,0.013470,-0.011907,0.002957,0.000627,-0.001240,0.007847,-0.007043,-0.000063,-0.009017,0.012067,0.007036,-0.007915,0.013623,0.041906,-0.007481,-0.002716,0.005040,0.071203,0.009412,0.020791,-0.008163,0.002943,0.023428,0.001646,0.028089,0.034105,0.009532,0.022227,0.012367,0.014812,0.000088,0.001467,-0.007546,0.001122,-0.009590,0.000776,0.035888,-0.006924,0.021611,0.085033,-0.011349,0.012335,0.013146,0.008026,0.019533,0.008636,0.015636,0.006668,0.065491,-0.001415,0.018751,0.047234,-0.004809,-0.005398,-0.001813,0.003106,0.020703,-0.007297,-0.011118,0.007415,0.000764,0.026804,0.022426,0.022622,0.019618,0.007807,0.009998,0.011328,-0.005895,0.002800,0.000296,0.023382,0.002012,0.013353,0.014438,0.030739,0.021143,0.000408,0.018680,0.022003,0.020085,-0.002795,0.008816,0.018611,0.024576,0.041237,0.007082,0.000455,-0.000186,-0.000195,-0.001591,0.007275,-0.006249,0.008960,0.005664,0.023609,0.008555,0.102273,0.015263,-0.003413,-0.005159,-0.005558,0.005878,0.047312,0.032519,0.024062,0.043491,-0.001874,0.008050,0.013109,-0.007641,0.050649,-0.006290,0.010933,0.028135,0.002967,0.022654,-0.010615,-0.002489,0.063180,0.007524,-0.005397,-0.000774,0.022112,0.028713,-0.010151,0.042411,-0.006310,-0.007891,0.049923,-0.005210,0.007418,0.016062,0.004865,0.009650,0.005491,0.002310,-0.004407,0.041984,-0.004147,0.076248,0.008557,0.024707,0.013755,0.031992,0.009511,0.003338,0.001787,0.020526,0.004019,0.011142,-0.004045,0.001705,0.011292,-0.000701,0.033324,-0.007141,-0.007370,-0.006834,0.051096,0.028245,0.036023,0.010333,0.019193,0.041150,-0.000627,0.023182,0.040093,-0.000924,0.027301,0.003607,0.018742,0.005299,0.031303,-0.002311,0.021252,0.013351,0.004479,-0.007636,-0.001484,0.009738,0.004724,0.018614,0.014620,0.040396,0.012601,0.043671,-0.010629,-0.017640,0.098331,0.020560,0.046686,0.000753,0.025761,-0.007539,0.008553,-0.005787,0.072679,-0.011554,-0.013829,0.019370,-0.002441,0.066388,0.003051,0.041642,-0.001472,0.000473,-0.003557,-0.011967,0.019320,0.008159,0.008358,0.002243,0.015498,0.069273,0.021784,0.003516,0.006902,-0.010268,0.009047,0.006138,-0.008631,0.016219,0.014347,0.068411,0.001446,0.029021,0.009721,0.029401,0.005986,-0.014788,0.002397,0.049493,0.056917,0.045458,0.019041,-0.012017,-0.013788,-0.001082,-0.009241,-0.009573,0.024892,-0.000250,0.028719,0.054075,0.012158,-0.000249,0.001740,0.053855,0.001931,-0.005055,0.019743,0.001836,0.000241,0.006075,0.009149,0.009579,0.016586,-0.005841,-0.003867,0.005069,-0.001387,0.025904,0.038440,0.065815,0.053829,-0.000398,0.017755,0.014031,0.020735,-0.010044,0.004564,-0.001452,-0.002491,0.000343,0.032638,0.001726,-0.000487,-0.007033,0.028781,-0.002568,0.028527,0.032964,0.019300,0.080230,0.013372,0.015405,0.012425,0.019911,0.013055,-0.005550,0.025132,0.007321,0.004189,0.022494,0.006975,0.007764,0.001291,-0.009252,0.012256,0.034984,-0.006733,0.025750,0.023234,0.067045,0.015863,0.014474,-0.004157,-0.013271,-0.000061,-0.006730,0.036676,0.008720,-0.009527,-0.004066,0.008197,0.006248,-0.000874,0.008083,0.067713,0.014433,0.032834,0.009035,0.017028,0.072429,0.048364,0.024182,0.001627,0.004348,0.035394,-0.003602,0.017167,0.033640,0.004249,-0.007671,0.017567,0.013762,0.010952,-0.011188,0.007149,0.050282,0.015695,0.006612,0.016900,0.072973,0.047420,-0.002434,0.024130,0.004361,0.000406,-0.006466,0.010643,-0.005871,0.026394,0.009278,0.003836,0.035906,-0.006322,-0.003730,0.003451,0.012877,0.016854,0.010702,0.075426,0.085361,0.013256,0.018328,0.025725,-0.002052,0.012765,-0.012530,0.035605,0.022220,-0.001087,0.000171,0.021881,-0.007062,0.001039,0.009133,0.006844,-0.005901,0.021499,0.041709,0.024269,0.101654,0.000643,0.014610,-0.012436,0.023477,0.016455,0.029728,-0.010743,-0.010988,-0.004148,0.020204,0.016294,0.006976,-0.013370,0.012174,0.024247,0.058756,0.000328,0.021728,0.054873,0.086277,0.001558,0.004849,0.002300,-0.003525,0.051657,0.011526,0.000555,-0.001557,0.008965,0.042892,-0.000184,-0.008630,0.022282,0.011400,-0.000315,-0.004966,0.001191,0.058642,0.044900,0.096106,0.000916,0.012045,0.012468,-0.000301,0.011876,-0.004148,0.010547,0.016875,0.047375,0.004198,0.040331,0.013639,0.001822,-0.007243,0.009959,0.001070,0.000593,0.022957,0.055615,0.096373,-0.001556,0.009742,-0.000201,0.042273,0.020087,-0.014459,-0.004377,0.047891,-0.009872,0.012579,0.008954,-0.008152,0.082845,0.036512,0.005128,-0.010531,-0.010737,0.006593,0.041699,0.095280,0.003008,-0.000810,0.026761,-0.013101,-0.001369,0.024470,0.010021,0.004767,0.010596,-0.002016,0.001485,0.020342,0.006448,-0.011144,-0.006289,0.004117,-0.001886,0.000791,0.029227,0.133110,0.073515,0.011106,-0.010432,0.032672,0.002582,0.001799,-0.005821,0.005848,-0.000870,-0.004164,0.020876,0.034672,0.007675,0.040983,-0.003513,-0.010726,0.023363,0.001264,0.055752,0.098535,0.078692,0.015056,-0.009453,-0.002984,-0.005605,0.004100,0.005039,0.006927,-0.006915,0.046492,-0.006695,0.004101,0.005249,-0.010482,-0.001050,0.015789,-0.013520,0.014425,0.069053,0.141237,0.077656,-0.008450,0.001658,-0.000848,0.007587,-0.012090,-0.006008,0.036881,-0.006191,0.022221,0.029580,-0.008464,-0.000412,-0.003238,0.000105,0.013261,-0.003577,0.131134,0.075587,0.115750,0.011935,-0.003020,0.022680,-0.001945,0.034592,0.000147,0.002452,0.042213,-0.011247,-0.002307,0.013874,-0.009028,0.040266,-0.013298,-0.008686,0.063207,0.007042,0.014259,0.021451,0.119163,0.017044,0.006123,0.013988,-0.008040,0.036242,0.007327,-0.000168,0.051192,0.013001,0.038366,-0.002507,-0.007293,-0.003399,-0.004753,0.003410,-0.007564,0.049818,0.020454,0.026799,0.117465,-0.001489,0.024939,0.050402,-0.005522,0.021859,-0.001677,0.017968,-0.003020,0.008712,0.021157,0.013291,-0.012326,-0.003801,0.018825,0.012259,0.010600,0.006954,0.019503,0.038051,0.119681,-0.004554,0.027624,-0.005363,0.026014,0.005544,0.031429,0.005795,0.003234,-0.001587,-0.004820,0.016643,0.062390,0.001483,-0.006957,0.031830,0.006153,0.005887,0.022843,0.032637,0.123127,-0.000430,0.013249,0.005461,-0.004187,0.013613,-0.014907,0.009780,-0.004141,0.039084,0.010755,0.020023,-0.005526,0.008959,-0.008519,-0.000791,-0.006810,0.034522,0.052163,0.025554,0.156621,-0.008218,0.012953,-0.013975,-0.017032,-0.004100,-0.014010,-0.010553,0.001608,-0.015741,0.000422,0.009854,-0.011869,0.065493,0.048029,0.042942,-0.010553,0.004907,0.111147,0.069849,0.141562,0.002147,0.017275,0.016552,0.011100,0.015748,0.000420,0.009861,-0.007679,0.004690,0.018339,0.065406,0.006490,0.006810,-0.005914,0.017177,-0.003255,-0.008124,0.021588,0.044193,0.138319,0.027072,0.005912,0.009345,-0.010467,0.010178,0.025612,0.036688,-0.010128,0.009701,-0.002990,0.004154,-0.012837,0.002071,-0.006296,-0.001636,0.013861,0.015676,0.018426,0.036176,0.135842,0.054172,0.069748,-0.008791,-0.004735,0.047275,-0.013887,0.005485,0.025395,0.038758,0.015408,0.014344,0.005267,0.017256,-0.001862,-0.006188,0.001505,-0.009613,0.039097,0.033505,0.145503,0.019682,0.019969,0.006139,0.062016,-0.003219,-0.012759,-0.007237,-0.003485,-0.001330,0.010416,0.029697,0.017033,0.007296,-0.011605,0.004052,-0.012191,-0.011736,0.014142,0.096195,0.146525,0.005307,0.043186,-0.003273,0.004103,0.000429,-0.012407,0.018077,-0.003053,0.007695,0.008718,0.028719,-0.007802,0.035617,-0.007895,0.014860,0.030891,0.010535,0.021758,0.042213,0.158229,0.003394,0.004772,-0.008003,0.042320,-0.008552,-0.014112,0.095385,-0.010478,-0.019956,-0.014446,0.003128,-0.017553,-0.001191,0.010684,-0.015111,-0.012782,0.014346,-0.003562,0.031662,0.191775,0.000396,0.031514,0.046935,-0.010376,0.020619,-0.016120,0.019763,-0.000609,-0.002118,0.009866,0.032773,-0.010236,0.008533,0.004451,0.032449,0.003407,0.004135,0.012989,0.068352,0.151101,0.010786,0.001159,0.037064,-0.003052,0.027483,-0.001479,0.007352,0.026627,0.024798,0.003557,0.011409,0.001271,0.002283,-0.011633,-0.000261,-0.006553,0.016488,0.034244,0.038229,0.156731,0.017609,0.011055,0.041073,-0.008728,0.055980,-0.004931,-0.003117,-0.003520,-0.012014,0.011610,0.016119,-0.008263,-0.001521,-0.009298,0.084236,-0.008828,-0.011016,0.020510,0.042126,0.162288,0.003722,0.005473,-0.000195,0.044387,0.001203,-0.007245,0.008492,-0.011846,-0.006024,-0.004516,0.004246,0.038434,0.023980,0.003672,0.020889,0.000797,-0.011812,0.051311,0.046625,0.164191,0.003934,0.001460,0.004382,0.005496,0.016513,-0.017604,0.001905,-0.004428,-0.011029,0.002747,-0.000451,0.015616,0.028804,0.010437,0.010186,-0.004178,0.031227,0.037152,0.036430,0.171231,0.031637,0.018569,-0.001236,0.002651,-0.000778,-0.015381,0.003921,-0.010920,0.017846,0.037836,0.000660,0.050085,0.002052,-0.012241,0.003921,-0.006530,0.001645,0.054905,0.039695,0.179357,0.010131,0.012855,0.001676,-0.002959,0.004909,0.025555,0.024817,0.003081,0.001004,0.009783,0.020244,-0.011208,0.034788,0.005314,0.000514,-0.007872,0.010489,0.037274,0.066419,0.168393,0.003524,0.021826,0.001314,-0.008725,0.025332,-0.006847,0.046742,-0.009741,-0.008171,0.019785,0.012757,0.035013,0.004042,-0.007122,0.003404,-0.007100,-0.001549,0.031224,0.074959,0.186322,0.003965,-0.002052,0.046282,-0.008087,0.018122,-0.008690,-0.002024,0.001471,0.008003,0.006950,0.038379,0.018547,0.012480,-0.011707,-0.002322,-0.003942,-0.004067,0.038389,0.070404,0.175490,-0.009455,0.027629,
0.042827,0.030240,-0.021438,0.049383,-0.049274,0.016120,0.004375,0.045565,0.046363,-0.008966,-0.003120,0.038988,0.032143,-0.037653,0.034541,-0.006413,-0.013552,0.015859,0.010544,0.010493,-0.095489,-0.059470,-0.066548,0.013935,0.005707,-0.018068,-0.010991,0.022491,0.004087,-0.076644,0.010586,-0.036101,0.046518,-0.018733,0.038838,-0.058778,-0.033843,-0.019933,-0.000450,-0.029880,-0.081920,0.000173,-0.079624,0.047467,0.057323,-0.035866,0.075827,0.017106,0.061990,-0.048771,0.002498,0.034078,0.009370,-0.020279,-0.004210,-0.021743,-0.089312,0.021659,0.037872,0.037412,-0.058235,-0.022874,-0.048528,-0.032564,0.044871,0.003222,0.001387,-0.005963,-0.040923,-0.015729,0.082031,0.042856,0.001707,0.044456,-0.019190,-0.055410,-0.048183,-0.010491,-0.006534,-0.038971,-0.029980,-0.009508,-0.007993,0.001809,0.059350,-0.047859,0.081402,-0.044194,-0.020826,-0.014308,0.030312,0.019158,-0.018271,-0.050361,0.028626,-0.031538,-0.030501,0.028428,0.045792,-0.005935,-0.027012,-0.055039,0.004825,-0.033934,0.010603,-0.010411,0.070573,0.023468,0.010612,-0.080632,0.064538,0.062114,-0.014964,-0.047670,0.009126,0.002661,-0.086951,0.029025,0.022421,0.017478,-0.085640,-0.027682,-0.001281,0.023047,0.069766,0.026878,0.056379,0.038228,0.003587,-0.002075,-0.005261,0.021898,0.053336,0.002503,0.005246,-0.045369,-0.012254,0.040907,0.055807,-0.027121,-0.044214,-0.070908,-0.086831,0.051732,0.014436,0.004587,0.018255,0.021060,0.005705,-0.042265,0.084162,-0.020879,0.062027,-0.011872,0.015201,0.006824,-0.059618,-0.020377,0.042663,0.021355,-0.105818,-0.058540,-0.052127,0.031721,0.024914,-0.036752,-0.000002,0.031181,-0.023897,-0.038016,0.018156,0.057062,0.043468,0.000660,0.005477,-0.021316,-0.050204,0.039877,0.046179,0.033472,-0.029327,-0.046645,-0.069227,-0.040696,0.059994,0.005228,-0.014385,0.005297,-0.024590,-0.045677,0.041191,0.041694,0.050740,-0.048130,-0.022310,-0.013706,0.009603,-0.016623,-0.030556,-0.030611,-0.011773,-0.006458,-0.012101,-0.033816,0.025235,-0.045029,0.054214,-0.014129,0.024101,-0.065586,0.074919,0.049174,0.053046,-0.020898,-0.034651,-0.041359,-0.007961,-0.027619,0.007912,-0.036170,-0.072670,0.002224,-0.074299,0.037221,0.060917,0.020211,0.007326,-0.015760,-0.010771,-0.072051,0.065113,0.020390,0.000547,0.047599,-0.004938,0.022707,0.013581,-0.017522,-0.031469,0.006132,-0.086946,-0.071347,-0.007374,0.028545,0.045889,-0.022501,0.010824,0.012187,0.047540,-0.061953,0.013157,-0.021658,0.014455,0.010162,0.041481,0.015081,-0.074176,-0.050658,-0.010090,0.016858,-0.063437,-0.041374,-0.030911,-0.001980,0.059194,0.024217,0.064887,-0.046004,0.046291,-0.047035,0.073219,-0.025871,0.039800,0.046272,0.007527,0.011636,-0.052885,-0.038126,0.022367,0.008662,-0.055117,-0.071160,-0.037607,0.022467,0.064151,-0.054216,0.033109,-0.052854,-0.029900,-0.075081,0.060646,0.000782,-0.014274,0.022691,-0.028763,-0.052944,-0.043427,-0.044774,-0.004700,0.042736,-0.037750,-0.028017,-0.031298,-0.022014,0.008779,-0.051536,0.061210,0.007843,0.052926,-0.071849,-0.003888,0.059498,0.015658,-0.036939,0.003609,-0.053318,-0.013291,-0.004556,0.003235,0.039166,-0.048255,-0.001296,-0.017343,0.031185,0.021006,-0.007727,-0.026114,0.000348,-0.034814,-0.060806,0.059953,-0.007323,0.057666,0.021638,0.029634,-0.049279,-0.034669,-0.017758,0.005815,0.040868,-0.096535,-0.012542,-0.025266,-0.017855,-0.004622,-0.004834,0.043148,-0.038841,-0.010226,-0.032664,0.054849,0.037478,0.024187,-0.017724,-0.042432,0.046876,0.004680,-0.033490,-0.049967,-0.007869,-0.323199,-0.112251,-0.163663,0.019845,0.140392,-0.014911,0.125048,-0.039967,0.072082,-0.255269,0.189759,0.089806,0.057066,0.003030,0.014705,-0.036906,-0.177161,0.047459,0.071281,-0.022900,-0.063469,-0.051934,0.015254,0.002801,0.037746,0.008201,-0.011208,0.013796,0.026462,-0.091166,0.055792,-0.022110,-0.003852,-0.000983,-0.038585,0.020054,-0.013179,0.012184,0.027661,-0.008568,-0.058823,0.018038,-0.066991,0.003354,0.055893,-0.045663,0.012992,-0.052694,0.038117,-0.055926,0.047006,0.012019,-0.002476,0.006342,0.004768,-0.002243,-0.000163,0.040305,0.023425,0.017206,
-0.044039,-0.029173,0.046396,0.044588,-0.029304,0.035225,-0.038635,0.017043,0.011845,-0.025998,0.019264,0.017486,0.038733,0.032886,-0.027166,-0.027729,0.036798,0.016572,-0.012217,-0.018116,-0.053768,-0.081716,0.018522,-0.068234,0.016128,0.098464,0.005867,0.033275,-0.066503,0.014353,-0.091462,0.036966,0.127091,-0.007229,0.051324,-0.018334,-0.214733,-0.050654,-0.055859,-0.001916,-0.000912,-0.071830,-0.020112,-0.014926,0.029292,0.070869,0.028519,0.019592,0.019828,0.030388,0.002169,0.018258,0.086684,0.027537,0.043357,-0.023160,-0.129623,0.036932,0.003295,-0.002816,0.014495,-0.002820,0.054655,-0.074120,0.000859,-0.012941,0.055011,0.031038,-0.037162,-0.004600,-0.063231,0.025415,0.096299,-0.040903,0.049587,-0.006563,-0.122197,-0.055934,-0.037495,0.001605,0.024454,0.026660,0.025959,-0.014166,-0.001705,-0.047651,0.032936,0.044392,0.024808,-0.013881,-0.025833,-0.027467,-0.041132,-0.021382,-0.016639,-0.036953,0.006856,-0.047157,0.048093,-0.048220,0.061012,0.101317,-0.056626,-0.011730,0.021240,-0.025742,-0.049796,-0.041020,0.068734,0.009820,0.046524,0.000328,-0.024076,-0.013420,-0.058060,-0.001202,0.128936,0.018269,0.060969,-0.005873,0.043040,0.024428,0.004667,-0.033479,-0.037407,-0.004057,0.015302,-0.010003,-0.040148,0.001109,-0.034022,0.008494,0.065128,-0.048236,-0.044353,-0.000056,-0.052446,-0.017367,-0.037099,-0.043383,-0.019744,0.051212,-0.039820,-0.022368,-0.048943,-0.062742,0.009328,-0.033219,-0.012756,-0.043653,0.038108,-0.019226,-0.058195,-0.000595,0.031702,-0.033601,0.131993,-0.033921,0.041397,0.043851,0.004236,0.001432,-0.005028,-0.020684,-0.046950,0.033639,0.023112,0.009561,-0.016490,0.044761,0.037341,0.028572,-0.034256,0.027917,0.008339,-0.039108,-0.037297,0.011757,-0.038042,0.027432,-0.025757,0.012667,-0.000725,-0.020553,0.007030,-0.026921,0.001008,-0.026909,0.024214,-0.012986,0.055253,0.001101,-0.035810,-0.047893,-0.041510,-0.000977,0.052073,0.003407,0.016802,-0.019735,0.013861,-0.084210,0.014138,-0.073969,0.025960,0.027806,0.000444,0.039915,-0.073404,-0.007628,-0.075802,0.095303,0.104944,0.009162,0.061534,0.044620,-0.159984,0.016153,-0.090465,-0.044006,0.028195,0.103442,0.001476,0.077355,-0.007983,-0.090064,-0.036456,-0.058343,0.013516,0.017268,0.060960,-0.080067,-0.016925,0.025119,0.030993,-0.035147,0.110230,-0.008381,0.013844,0.009183,0.029854,-0.017814,0.010714,-0.014621,-0.024041,-0.045303,0.006924,0.020882,0.012949,0.015065,0.041041,-0.006084,-0.051727,-0.006734,0.011760,-0.013090,0.082198,-0.033362,-0.005625,0.020120,0.021491,0.060741,-0.044734,0.035847,-0.015137,0.023883,0.013847,-0.023241,0.030275,-0.042673,0.008377,-0.030797,-0.042614,-0.048893,-0.003346,0.033553,0.076402,-0.047534,-0.032428,-0.035162,0.039870,-0.053390,-0.044194,0.020098,0.014637,0.052432,-0.042965,0.051009,-0.027257,0.009317,-0.017461,0.011670,0.008402,0.017658,0.018232,0.038506,0.030883,-0.033558,0.035848,-0.008994,0.002307,-0.013710,-0.039225,-0.035133,0.012797,-0.016345,-0.034969,0.038355,0.051473,0.044769,-0.015816,-0.010635,-0.019381,0.028081,-0.009780,-0.044636,0.000798,0.026817,0.001101,0.033682,0.040546,-0.011807,0.016289,-0.013969,0.018249,0.049271,0.033543,0.045530,-0.009881,0.039297,-0.022995,0.003608,0.054676,-0.029464,0.037042,0.033655,-0.063538,-0.047082,-0.029080,-0.040177,-0.024625,-0.085093,0.053344,-0.071387,0.022909,0.068563,0.042844,-0.003732,-0.013172,-0.005513,0.006748,0.048410,0.080823,-0.008432,0.019849,-0.043913,-0.116618,-0.018068,-0.018508,0.002150,0.047397,-0.001386,0.043992,0.037363,-0.008389,-0.034569,0.008904,0.044803,0.029354,-0.035901,-0.018234,0.042446,0.000838,0.008459,-0.011363,0.016630,0.019091,-0.001954,-0.043382,0.010633,0.055043,0.068980,-0.045386,0.008050,0.033539,-0.045270,0.028533,-0.018621,0.037989,-0.001342,0.012699,0.027221,-0.037731,0.017855,0.001126,0.012471,0.029928,0.017629,0.017024,0.033224,-0.014277,0.056515,-0.042798,0.002315,-0.016315,0.015758,0.034716,0.032709,0.026062,-0.004825,-0.018391,0.027474,-0.011541,0.036958,-0.017163,0.039280,-0.017206,-0.044196,0.003439,0.049898,
0.011334,0.051903,0.183652,-0.066790,0.110576,-0.038905,-0.146644,-0.041959,-0.067662,0.111779,-0.005795,0.122034,-0.107783,-0.190785,0.005847,-0.073696,-0.020778,0.320318,0.030373,0.113135,0.039927,
